-0.740522944
-0.389640672
-0.290316032
1.282180672
1.220604656
-0.646233216
-0.112051168
-0.376480448
-0.367851200
0.676306944
0.581917312
-0.339803296
-0.794592576
0.363209792
2.036318064
0.660229056
-0.957198720
-0.409425184
0.284590048
0.171184256
-0.132152360
-0.244443040
-0.216441424
0.075831296
0.002611350
-0.021388328
0.194981616
0.181303008
0.300942976
-0.568980032
0.205273648
-0.326474080
0.079335440
0.002427537
0.280559136
-0.033178058
-1.831602688
-1.881657024
0.224990832
1.499175776
1.253603456
0.243806784
0.549887744
-0.676991360
0.570979392
-1.019977808
1.069807528
0.256228864
0.272502752
-0.388800544
0.374095232
0.179387184
-0.146463776
0.031963792
0.404292160
0.417154720
0.508484768
0.485508544
0.007289115
-0.103159936
0.269943776
-0.121233304
-0.263859392
0.316770944
0.290247744
-0.352002048
1.187950848
-0.325120800
-0.455173504
0.008188882
-0.009284365
1.004810452
0.161603504
-0.035768636
-0.006735519
-0.328257024
0.064989848
0.351395040
0.156831168
0.112660488
0.567071296
0.447664480
0.304845280
-0.094569016
0.148863920
0.593875456
0.260082160
0.098278984
0.488178464
-0.286491744
-0.110199576
0.483305760
0.094100200
0.051742856
0.955091072
0.133256616
0.440604608
0.222474560
0.330748832
0.319669536
0.559665792
-0.091944384
-0.253943536
0.239132832
-0.466055168
-0.164446000
0.855233856
0.310138848
0.790679616
0.169812784
-1.035277844
0.113581016
0.313137088
-0.493545152
0.443844064
0.376693472
0.447075008
-0.046828976
0.594875712
0.004119281
1.109885456
0.160755616
0.289811552
-0.040094024
-0.071874560
0.431202048
0.697657856
0.027123310
0.003540218
0.435168864
0.216771744
0.232715472
0.345656448
0.335282720
0.233276848
0.819127552
0.143441952
0.261225552
0.633438976
-0.283850944
0.725879104
0.128183488
0.702205760
0.028483498
0.626577984
-0.219100320
0.280911552
-0.103360336
1.292948480
-0.689746496
0.300932576
0.832429376
