-1.118509768
-0.274465824
0.261087504
0.782385984
1.002568721
-0.649983232
-0.680064768
-0.507354496
-0.978484288
0.736511424
1.423244960
0.310744800
-1.461039424
0.578897280
2.390993120
0.457559680
-0.856016320
-0.335891232
-0.014501625
0.000777490
0.036606236
-0.494600480
-0.154138592
0.293119296
-0.550020544
-0.285574080
-0.531565248
0.437513184
0.738179968
-0.314917920
-0.110905488
-0.237572064
0.323251008
-0.302737280
0.131621152
0.244871632
-1.364131104
-1.125912904
0.236909168
0.292912064
1.158120160
0.541166784
0.340778240
-0.160277776
-0.166315568
-0.596112512
0.340410816
0.514735808
0.237013360
-0.463738272
-0.170283968
0.102950224
0.018117162
0.492110656
0.349416512
0.310877760
0.448200960
0.520549312
0.004699983
-0.124211864
0.075251816
-0.112144040
-0.281867328
0.191918432
-0.094202120
-0.267416752
0.306069536
-0.050034560
0.082020464
0.122118936
0.112867984
0.897394432
0.525940128
0.884135744
-0.117118720
-0.261329168
-0.022333078
0.300249536
0.272782560
0.034844000
0.404530944
0.551103232
0.366016928
-0.205191984
0.113878784
0.841653568
-0.219801248
0.229006960
0.349429984
0.063663484
0.618841792
0.302285408
0.008737893
0.044127684
1.438273184
0.381570720
1.577427136
0.225092896
0.946541696
0.358972608
0.700800768
0.007167710
-0.269605568
0.208980032
-0.265477664
0.043789332
0.054680028
0.500516416
1.011825800
0.197451776
-0.038905004
0.059986492
0.392062688
-0.047763572
0.099246560
0.968911872
-0.572070592
0.068127144
0.247827232
-0.003044283
1.165791632
0.251419312
0.073460456
0.108582976
-0.256192976
0.384081856
0.626174080
-0.025483872
0.088954528
0.301928896
0.832149184
-0.131199600
0.221782704
0.026891820
0.251381584
0.712060352
0.013719124
-0.091821040
2.146567104
0.048771392
0.169995472
-0.654256640
1.197161552
0.035887420
0.500791360
0.133935408
-0.697375168
0.253937280
0.354184064
-1.659204352
-0.120994840
1.520154240
