-0.187733008
0.430763808
0.019699114
-0.024799174
0.199265152
-0.444989280
0.302188896
-0.166058448
-0.050865552
0.045415576
-0.050907364
-0.030048008
-0.672431680
0.328091776
1.876657600
0.684082752
-0.946218368
-0.770319040
1.308902016
0.768894144
0.269097440
-0.863317952
-1.508797632
-0.160485600
0.646290368
0.559717504
-0.032961894
-0.343668480
-0.342145760
-0.728949696
-0.028502204
-0.021289510
-0.161172336
-0.106594960
0.356513792
-0.014810975
-0.742234048
-0.705554432
0.300312000
0.210918528
0.798127104
0.085864888
0.022281962
-0.451648800
0.370496032
-0.438078720
0.476423328
0.270610016
0.139327504
-0.283329568
0.236294432
0.153318048
-0.079192720
0.259302256
-0.089594304
0.243991296
0.434499488
0.780383680
0.009090935
-0.441361760
-0.666813248
-0.400698784
-0.275072192
0.118216840
0.273309344
-0.342776960
0.944243008
-1.419202432
0.198856336
0.259320320
0.712152128
0.499034560
-0.018235600
-0.230597360
-0.255792432
-0.428269952
0.088465784
0.380507232
-0.314214048
0.026031238
0.321241120
0.322214624
0.324013632
-0.288364256
-0.033595400
0.474230720
0.291129920
0.373337280
0.452302976
-0.385781920
-0.139389712
0.212771104
0.031928788
-0.121042032
0.391143296
-0.117320672
0.286912256
1.139013056
0.178481472
0.241994000
0.001574744
-0.229775760
-0.287428416
-0.008146424
-0.336744736
-0.101146632
0.404926848
0.762436224
0.603356416
0.150647216
-0.486394720
-0.030774102
0.333252352
-0.360272960
-0.078271624
0.247692240
-0.132970856
0.441406656
0.235122624
-0.165460000
0.704023296
0.473675200
0.296990752
0.146680368
-0.162189744
0.385855008
0.610794368
0.159417936
0.222009520
0.637633472
0.370325824
0.099233240
0.405610848
0.388668288
0.283041408
0.030249292
0.460633568
0.321875232
0.566474752
0.783892416
0.423295936
-0.118277960
-0.033362102
-0.175025008
0.389180832
0.027719586
-0.519660128
0.267102544
0.239336624
0.280085856
0.081352824
0.626332800
0.801286592
0.128102704
-0.103692896
0.478437376
0.387468800
1.098939064
0.170140064
0.118364944
0.400637344
0.735555200
0.366165344
0.265332224
0.293926912
-0.113860968
0.079105072
0.357186944
-0.178556528
0.568087488
0.119336688
-0.323504512
0.537685376
-0.464575328
0.374373632
0.058862680
-0.179968624
-0.173451952
0.286630880
0.245048832
1.716211776
-0.103259360
0.152807696
-0.310656544
-0.075423336
-0.106041568
0.127012640
0.034031696
0.166235504
0.321791360
0.176319456
-0.176025744
-0.202420016
0.428724160
-0.107931760
-0.353702752
0.613319936
-0.524165088
0.372805408
0.371502560
0.461295616
-0.341652096
1.766907072
0.421076992
1.243556976
0.982939072
0.396631200
1.262044432
-0.216941600
0.192295536
0.176353616
0.161758336
1.533973824
